{
  "type": "logistic_regression",
  "n_features": 8,
  "n_classes": 11,
  "reg": 0.05,
  "W": [
    [
      -0.6175302863121033,
      0.6726294755935669,
      0.2668844759464264,
      -0.5595597624778748,
      -0.5805582404136658,
      0.17643140256404877,
      -0.5566376447677612,
      0.23939873278141022,
      0.29401275515556335,
      0.3618302047252655,
      0.30309897661209106
    ],
    [
      -0.764457643032074,
      -0.6982502937316895,
      -0.5172743201255798,
      0.5240331292152405,
      0.30975520610809326,
      0.2445598840713501,
      0.2894684672355652,
      0.21299424767494202,
      0.21505697071552277,
      0.011632047593593597,
      0.17248231172561646
    ],
    [
      0.5471340417861938,
      0.5020828247070312,
      -0.39018839597702026,
      0.6529526710510254,
      -0.44995275139808655,
      -0.35442182421684265,
      -0.4645482897758484,
      -0.37908345460891724,
      -0.36116379499435425,
      0.7882446050643921,
      -0.09105616062879562
    ],
    [
      -0.2942134141921997,
      -0.33139467239379883,
      0.5771996974945068,
      -0.3922739326953888,
      0.7276449799537659,
      0.5292367339134216,
      -0.4333650767803192,
      -0.22842340171337128,
      0.46479421854019165,
      -0.2526123523712158,
      -0.36659231781959534
    ],
    [
      -0.22872252762317657,
      -0.24345053732395172,
      -0.204550638794899,
      -0.33832064270973206,
      -0.3634576201438904,
      -0.1928039938211441,
      0.805995762348175,
      0.7553356885910034,
      -0.4613790214061737,
      -0.2593550384044647,
      0.7307090163230896
    ],
    [
      0.2163011133670807,
      0.2157202512025833,
      -0.22425433993339539,
      0.15544772148132324,
      0.2715165913105011,
      -0.2353464961051941,
      0.2184811234474182,
      -0.21810190379619598,
      -0.2243223488330841,
      -0.052338194102048874,
      -0.12310385704040527
    ],
    [
      -0.33824118971824646,
      -0.5248628854751587,
      0.4234533905982971,
      -0.415567547082901,
      -0.5653929710388184,
      0.3792979419231415,
      -0.5266076922416687,
      0.44587942957878113,
      0.2800951898097992,
      0.5241110920906067,
      0.31783542037010193
    ],
    [
      -0.2151186615228653,
      -0.32870861887931824,
      0.061853181570768356,
      -0.27905601263046265,
      -0.3642106056213379,
      0.08938390761613846,
      -0.3335167467594147,
      -0.14852838218212128,
      0.5689265131950378,
      0.35294055938720703,
      0.5960352420806885
    ]
  ],
  "bias": [
    0.840003490447998,
    0.2986099123954773,
    0.17398588359355927,
    0.1452331691980362,
    0.307906836271286,
    -0.29143354296684265,
    0.39564764499664307,
    -0.22284261882305145,
    -0.4574810564517975,
    -0.5780265927314758,
    -0.6116024851799011
  ],
  "classes": [
    0,
    1,
    2,
    3,
    4,
    5,
    6,
    7,
    8,
    9,
    42
  ]
}