{
  "type": "logistic_regression",
  "n_features": 8,
  "n_classes": 6,
  "reg": 0.05,
  "W": [
    [
      0.076080821454525,
      -0.26920005679130554,
      -0.0966346263885498,
      0.12236538529396057,
      0.10526435077190399,
      0.06212411820888519
    ],
    [
      -0.7796686291694641,
      0.3319341540336609,
      0.25920984148979187,
      0.24984075129032135,
      -0.20969392359256744,
      0.14837761223316193
    ],
    [
      -0.3609938323497772,
      -0.34033679962158203,
      -0.39824482798576355,
      -0.36494576930999756,
      1.392938494682312,
      0.07158231735229492
    ],
    [
      0.6424782872200012,
      0.6168336868286133,
      -0.5409627556800842,
      0.48286905884742737,
      -0.5491049289703369,
      -0.6521139144897461
    ],
    [
      -0.34084880352020264,
      -0.30164358019828796,
      0.9727931022644043,
      -0.7515856027603149,
      -0.5166155099868774,
      0.9379009008407593
    ],
    [
      -0.04576801881194115,
      0.040738560259342194,
      -0.06917519122362137,
      -0.06248300150036812,
      0.1210070475935936,
      0.015680616721510887
    ],
    [
      0.06941194832324982,
      -0.0028988556005060673,
      0.03706483915448189,
      -0.061503782868385315,
      0.024556567892432213,
      -0.06663084030151367
    ],
    [
      -0.2156449407339096,
      -0.133538618683815,
      -0.6250859498977661,
      0.5216498970985413,
      -0.11542898416519165,
      0.5680485367774963
    ]
  ],
  "bias": [
    0.5604888200759888,
    -0.04567655920982361,
    0.2791846990585327,
    -0.493135929107666,
    0.23051704466342926,
    -0.5313780307769775
  ],
  "classes": [
    2,
    5,
    7,
    8,
    9,
    42
  ]
}